{"version": "0.5.1", "metadata": {"date": {"year": 2023, "month": 4, "day": 27, "hour": 13, "minute": 10, "second": 33}, "loudness": -7.7950544357299805, "gain": 0.7462707542022086, "name": null, "modeled_by": null, "gear_type": null, "gear_make": null, "gear_model": null, "tone_type": null}, "architecture": "WaveNet", "config": {"layers": [{"input_size": 1, "condition_size": 1, "head_size": 4, "channels": 8, "kernel_size": 3, "dilations": [1, 2, 4, 8, 16, 32, 64], "activation": "Tanh", "gated": false, "head_bias": false}, {"input_size": 8, "condition_size": 1, "head_size": 1, "channels": 4, "kernel_size": 3, "dilations": [128, 256, 512, 1, 2, 4, 8, 16, 32, 64, 128, 256, 512], "activation": "Tanh", "gated": false, "head_bias": true}], "head": null, "head_scale": 0.02}, "weights": [-0.12016954272985458, 0.5650263428688049, -0.7920649647712708, -0.9074912071228027, -0.3870530426502228, 0.29557323455810547, 0.4140046238899231, 0.9042055606842041, 0.02362651936709881, -0.07745054364204407, 0.06215861439704895, -0.19242717325687408, -0.3638286292552948, 0.06027873232960701, 0.07682788372039795, 0.19083984196186066, -0.10129759460687637, 0.2804189920425415, 0.04688198119401932, -0.2789531350135803, 0.21061427891254425, 0.3394508957862854, -0.24525442719459534, 0.04108688235282898, -0.18659423291683197, 0.24691393971443176, 0.10259465128183365, -0.30627191066741943, 0.19731120765209198, -0.2118934690952301, -0.26183363795280457, 0.3596545159816742, 0.09722136706113815, 0.3398584723472595, -0.21194614470005035, -0.6227737665176392, 0.16122004389762878, 0.5181158185005188, 0.5088773965835571, -0.206234410405159, -0.3527250289916992, 0.331002414226532, -0.26742053031921387, -0.5492736101150513, 0.2836436331272125, -0.37324652075767517, -0.19114413857460022, -0.2994628846645355, 0.10072643309831619, 0.2364237904548645, -0.43328505754470825, 0.5473814606666565, 0.46322551369667053, -0.4147360026836395, 0.4288349747657776, 0.23661282658576965, 0.16172374784946442, -0.2701270580291748, -0.38712817430496216, -0.16308645904064178, -0.35444480180740356, 0.2420797497034073, -0.06382983922958374, 0.5203399658203125, -0.029238685965538025, 0.01732509396970272, 0.4674130082130432, -0.10283608734607697, 0.16680380702018738, 0.6390804052352905, -0.3301832675933838, -0.15700049698352814, -0.37906384468078613, 0.3693327307701111, 0.27092331647872925, -0.26205384731292725, 0.2559831738471985, -0.222726508975029, -0.43134379386901855, 0.021586846560239792, -0.2197180539369583, 0.21927696466445923, 0.4773467481136322, -0.0647302120923996, -0.04350326582789421, 0.040002238005399704, -0.16421209275722504, -0.0014844844117760658, 0.009452440775930882, -0.26318269968032837, 0.15904077887535095, 0.021199431270360947, -0.005738397128880024, 0.15734539926052094, -0.29008743166923523, 0.033393245190382004, 0.008049250580370426, 0.11952047795057297, 0.11112909018993378, -0.08558472245931625, 0.4467906057834625, 0.27500006556510925, -0.17486616969108582, 0.02356843836605549, -0.11256357282400131, -0.07148385792970657, -0.06604301929473877, -0.3234595060348511, -0.09388511627912521, 0.23482993245124817, 0.08715232461690903, 0.214873805642128, -0.3186480402946472, 0.3536407947540283, 0.2340088039636612, -0.3727199137210846, 0.09567845612764359, 0.0882219448685646, -0.17893099784851074, -0.09029943495988846, 0.002537362975999713, 0.2240133285522461, -0.2160048484802246, 0.06498502939939499, 0.10307807475328445, -0.29383179545402527, -0.14448614418506622, 0.09485936909914017, -0.11821090430021286, -0.29834696650505066, -0.06066012755036354, 0.4427330195903778, -0.45113906264305115, 0.03143797069787979, -0.24402612447738647, 0.3139493465423584, -0.018551133573055267, -0.42748939990997314, 0.37139955163002014, 0.09480012953281403, -0.21086683869361877, 0.44149789214134216, 0.13672351837158203, 0.36280813813209534, -0.48116162419319153, -0.0008100004633888602, 0.6513045430183411, -0.33483147621154785, -0.06825339049100876, 0.2565775215625763, -0.51186203956604, -0.13735485076904297, -0.1332317590713501, 0.30177468061447144, 0.03576914966106415, 0.02477586269378662, 0.12507186830043793, -0.4348335564136505, -0.2667984366416931, -0.0883168950676918, 0.22961586713790894, -0.2688157260417938, -0.194342240691185, 0.09413204342126846, -0.24421590566635132, -0.002897599944844842, 0.18153086304664612, 0.28321942687034607, -0.18459269404411316, -0.2946048378944397, 0.3421435058116913, -0.15148867666721344, -0.2235867828130722, 0.30242660641670227, -0.17660191655158997, -0.1362942010164261, -0.09877632558345795, 0.08278670161962509, 0.06632382422685623, 0.21559195220470428, -0.036041948944330215, -0.1870223730802536, -0.24165713787078857, 0.10537145286798477, 0.23576824367046356, -0.3182159960269928, 0.002563158515840769, 0.10086724162101746, -0.5345113277435303, 0.16716992855072021, 0.30637603998184204, 0.477113276720047, -0.2056070864200592, -0.13050433993339539, 0.3583952784538269, -0.08921533823013306, -0.22706358134746552, 0.46366411447525024, -0.16970336437225342, -0.14371620118618011, 0.03135683387517929, 0.4672394096851349, -0.25707945227622986, -0.047754254192113876, -0.08861616998910904, -0.009886348620057106, -0.08879850059747696, 0.07160311937332153, 0.529780387878418, 0.5018964409828186, 0.11694552004337311, -0.1288035809993744, 0.3078960180282593, -0.20968805253505707, -0.26348981261253357, -0.008837335743010044, -0.18933553993701935, -0.5701714754104614, 0.574061393737793, -0.21449370682239532, 0.14621441066265106, 0.4435650706291199, 0.06467722356319427, 0.06190173700451851, -0.5223573446273804, 0.19490361213684082, -0.33898141980171204, -0.28005465865135193, -0.3921496272087097, -0.0005885002901777625, 0.06816227734088898, 0.2161504626274109, 0.14578960835933685, 0.5188986659049988, 0.12524250149726868, -0.1359834522008896, 0.3009289503097534, -0.6970809102058411, -0.31610971689224243, -0.057945940643548965, -0.14573007822036743, 0.26111823320388794, -0.34238961338996887, -0.015294077806174755, 0.06354080885648727, -0.5810437202453613, 0.27924707531929016, -0.44809138774871826, -0.1367952674627304, -0.06694819033145905, -0.16450275480747223, 0.11169660836458206, 0.31182804703712463, -0.20198385417461395, -0.17618325352668762, -0.12610271573066711, -0.9246038198471069, -0.1535741686820984, -0.11295830458402634, -0.07567328959703445, -0.45953699946403503, 0.13832281529903412, 0.391983300447464, 0.2922191917896271, -0.014324008487164974, 0.11447209119796753, -0.3586168885231018, 0.13218283653259277, 0.12587231397628784, -0.17202851176261902, 0.0286817979067564, -0.31011196970939636, 0.003699164604768157, 0.17203503847122192, -0.07138121128082275, -0.1695408970117569, 0.41806361079216003, 0.16889527440071106, 0.006640526000410318, 0.1013140082359314, 0.07737752050161362, -0.2842037081718445, -0.2295069396495819, -0.11200539767742157, 0.020787978544831276, 0.04912242293357849, -0.235910102725029, -0.022088458761572838, 0.041141629219055176, -0.3845999240875244, 0.06465595960617065, 0.1418183594942093, 0.22021886706352234, -0.04932515323162079, 0.05807510018348694, -0.006140964571386576, 0.29444998502731323, -0.051034409552812576, 0.12053896486759186, -0.14405010640621185, -0.17109349370002747, 0.020414864644408226, 0.008815339766442776, 0.13540732860565186, -0.20545129477977753, -0.19181030988693237, -0.020925022661685944, 0.2991422116756439, -0.035028956830501556, -0.08299049735069275, 0.05100362002849579, -0.26824548840522766, 0.25435465574264526, 0.25962385535240173, -0.14410339295864105, -0.002413598820567131, -0.3216337561607361, 0.37347567081451416, 0.09403228759765625, 0.19917668402194977, -0.0473424457013607, 0.03705684468150139, -0.24897083640098572, 0.2457500547170639, 0.19114743173122406, -0.09582561999559402, -0.20187027752399445, -0.18109214305877686, -0.24835573136806488, 0.10867245495319366, -0.06607048213481903, -0.16069626808166504, 0.4017869532108307, 0.00499793142080307, -0.17609868943691254, 0.16619807481765747, -0.09702242165803909, 0.7437891364097595, 0.2755020260810852, 0.3677195906639099, -0.19793686270713806, -0.10994116216897964, -0.20948633551597595, 0.1385783553123474, -0.024254251271486282, -0.49652430415153503, 0.048415303230285645, -0.011696872301399708, -0.5401448011398315, 0.26764288544654846, -0.024588773027062416, 0.1557691991329193, 0.3589249849319458, -0.15713989734649658, 0.274854451417923, -0.21942304074764252, 0.09101217985153198, 0.23025968670845032, -0.7216417193412781, 0.0392247699201107, -0.2381114959716797, 0.03098505176603794, -0.36653679609298706, 0.17038321495056152, -0.14533859491348267, 0.1733553111553192, 0.049059342592954636, -0.2560930848121643, -0.14116314053535461, -0.05181555449962616, -0.3145149052143097, 0.31087028980255127, -0.12502436339855194, -0.0798657238483429, -0.15328648686408997, -0.08489455282688141, 0.09918855875730515, -0.08309806138277054, 0.21117043495178223, -0.0361887589097023, 0.2663584053516388, -0.0706959068775177, -0.12156932055950165, 0.2692452669143677, 0.6489167809486389, 0.06654789298772812, 0.22785919904708862, -0.22586224973201752, 0.08328612148761749, 0.14358942210674286, 0.26375967264175415, 0.2448323369026184, -0.06670814752578735, -0.31405141949653625, 0.20221132040023804, 0.18033088743686676, 0.14613719284534454, -0.2124079167842865, -0.3383174538612366, -0.023182198405265808, 0.1438029408454895, 0.2367689609527588, -0.24151170253753662, 0.44793546199798584, 0.11758432537317276, -0.4571760594844818, 0.3384997248649597, 0.08131203800439835, -0.6700310707092285, 0.2974073886871338, -0.12445496767759323, 0.44063544273376465, 0.06999785453081131, -0.04872710630297661, -0.3318725526332855, -0.4648808538913727, -0.0744866207242012, 0.41151779890060425, -0.470771461725235, 0.2975722849369049, -0.12862516939640045, -0.21796150505542755, 0.213782399892807, 0.34641146659851074, 0.1952880322933197, -0.36863207817077637, 0.09171793609857559, -0.4727489948272705, -0.16243551671504974, 0.36262643337249756, -0.325658917427063, 0.09786626696586609, 0.009479546919465065, 0.01532264705747366, 0.1980605572462082, 0.08870648592710495, 0.08674019575119019, -0.5288169980049133, -0.44664010405540466, -0.5143271088600159, -0.16349811851978302, -0.8480746150016785, -0.25181153416633606, 0.12058156728744507, -0.47202107310295105, 0.3836286664009094, 0.4392509460449219, 0.15419062972068787, 0.09830095618963242, -0.46069416403770447, 0.08816134929656982, -0.025503840297460556, 0.09640998393297195, 0.19329050183296204, -0.20029693841934204, 0.056064143776893616, 0.06428662687540054, 0.24041777849197388, -0.4108843505382538, -0.22862809896469116, -0.4454260468482971, 0.12041875720024109, -0.1564285308122635, 0.047977514564991, -0.1469491869211197, -0.2426912486553192, 0.26253607869148254, 0.01161221880465746, -0.07169310003519058, 0.10571989417076111, -0.04112556204199791, 0.21432113647460938, -0.05082720145583153, 0.12270786613225937, 0.10188020765781403, -0.24996040761470795, 0.022216206416487694, 0.046229418367147446, -0.115005724132061, 0.4013245701789856, -0.26232412457466125, -0.21517132222652435, -0.29815077781677246, 0.12470867484807968, -0.0657893568277359, 0.12118107825517654, 0.07841970026493073, 0.21640121936798096, -0.1742451936006546, -0.11793834716081619, -0.1982710361480713, 0.15082146227359772, 0.6708287596702576, -0.8770990371704102, 0.5047385692596436, 0.07315143942832947, -0.3360951542854309, -0.10879535228013992, 0.7343391180038452, 0.2597833573818207, -0.6513370871543884, 0.46135202050209045, 0.22287707030773163, 0.4045291841030121, 0.25974005460739136, -0.345772385597229, -0.38795626163482666, 0.33872559666633606, -0.32264018058776855, 0.07281494140625, -0.032360199838876724, -0.030534114688634872, -0.20840562880039215, 0.012210007756948471, 0.4038040041923523, 0.049568310379981995, -0.3483370840549469, 0.2569725513458252, 0.07852853089570999, 0.20942430198192596, 0.587126612663269, -0.7033213376998901, 0.014145546592772007, -0.4090540111064911, -0.5062469244003296, -0.14334923028945923, 0.17950044572353363, -0.5245577692985535, -0.1993333101272583, -0.24318821728229523, 0.13310502469539642, 0.3542475402355194, -0.11636226624250412, -0.47769895195961, -0.7244473099708557, 0.11746858805418015, -0.003785643959417939, -0.24182318150997162, -0.07204524427652359, 0.059795621782541275, -0.2985244691371918, -0.11308834701776505, 0.5863209366798401, -0.3457348048686981, 0.29468634724617004, 0.10948441922664642, -0.3846914768218994, 0.17941682040691376, -0.21900537610054016, 0.6768434047698975, -0.13328713178634644, -0.4982590675354004, 0.4276733994483948, -0.4060943126678467, -0.3945314586162567, -0.03599880635738373, 0.12282618135213852, -0.35698992013931274, 0.2863461971282959, -0.2790684998035431, -0.2636813819408417, -0.39168494939804077, -0.06408286094665527, -0.02470576763153076, -0.08334408700466156, 0.2348351627588272, -0.2584816813468933, -0.19070027768611908, 0.1922794133424759, 0.47922587394714355, 0.08805111050605774, 0.27753615379333496, -0.3024577498435974, -0.021834267303347588, 0.047100815922021866, 0.03497974947094917, -0.28442806005477905, 0.153974711894989, 0.132098987698555, 0.10893678665161133, -0.003243295941501856, 0.14653602242469788, -0.23558145761489868, -0.00038390036206692457, -0.21566972136497498, -0.2191428393125534, 0.24075357615947723, -0.05968257412314415, 0.1931951344013214, 0.36112409830093384, -0.4133026599884033, -0.0664277896285057, -0.21941301226615906, 0.32340744137763977, 0.2171214371919632, 0.08865991979837418, -0.2822442054748535, 0.27429822087287903, 0.30918875336647034, 0.21386754512786865, -0.12270526587963104, 0.35260656476020813, -0.729641854763031, -0.007563839666545391, 0.23810622096061707, 0.018573561683297157, -0.19980554282665253, -0.16864921152591705, -0.14152120053768158, 0.02710457518696785, 0.03633394092321396, -0.23253914713859558, 0.337758332490921, 0.021178442984819412, -0.15991006791591644, 0.3282754123210907, 0.21892356872558594, -0.4818389117717743, 0.3414596915245056, -0.13531966507434845, 0.11472907662391663, 0.12490437924861908, 0.057326894253492355, -0.6960154175758362, 0.017477605491876602, -0.17222285270690918, 0.3073039948940277, -0.06265570223331451, -0.10002562403678894, -0.005599545314908028, 0.38379162549972534, -0.03450896218419075, 0.11929158866405487, -0.016088047996163368, -0.16232535243034363, 0.026922093704342842, -0.15672823786735535, -0.35712307691574097, 0.2535797655582428, 0.003019498661160469, 0.1696799248456955, 0.004258045461028814, 0.2786918878555298, -0.10656827688217163, -0.30273839831352234, 0.10912976413965225, -0.05223587527871132, 0.2863802909851074, -0.13284224271774292, -0.0733257457613945, 0.310565322637558, 0.11342570185661316, 0.5283010005950928, 0.14954447746276855, -0.16818921267986298, -0.14488498866558075, -0.17108164727687836, 0.041057005524635315, -0.20421645045280457, 0.08818355947732925, 0.12883667647838593, -0.20631207525730133, -0.03885866329073906, 0.05367868021130562, 0.23988157510757446, -0.16202892363071442, 0.17794866859912872, -0.15962758660316467, 0.08821968734264374, 0.039951011538505554, -0.06109149381518364, -0.1802457720041275, -0.13462932407855988, -0.23619890213012695, 0.1730474829673767, -0.07539915293455124, -0.3165956735610962, -0.30695125460624695, 0.4052191972732544, -0.14201845228672028, 0.24490398168563843, -0.14609390497207642, -0.452585369348526, -0.011033027432858944, -0.07424803823232651, -0.18799932301044464, 0.3683992624282837, -0.2557324171066284, -0.007112225983291864, -0.2996438145637512, 0.09438104182481766, -0.15049748122692108, 0.3696136176586151, 0.23778563737869263, 0.0032588718459010124, -0.8234701752662659, -0.26742127537727356, -0.03010948933660984, 0.26870471239089966, -0.019977401942014694, -0.09307961165904999, 0.06548435240983963, -0.07793670147657394, -0.01972709782421589, -0.0619584359228611, -0.0006293924525380135, -0.06707590818405151, 0.2926945686340332, -0.17631010711193085, 0.13964344561100006, 0.4358718693256378, -0.10811055451631546, -0.12755145132541656, -0.6617537140846252, 0.23631662130355835, -0.2798346281051636, 0.244411900639534, 0.029762381687760353, 0.2212112545967102, -0.566886305809021, 0.054422225803136826, -0.4174881875514984, 0.04265221580862999, -0.20674996078014374, -0.06115351989865303, 0.028568536043167114, 0.2963026165962219, -0.29047074913978577, 0.21164223551750183, -0.09997032582759857, -0.3116680383682251, 0.2428128570318222, -0.04314563423395157, -0.1936800479888916, 0.3161556124687195, 0.17468655109405518, -0.19559261202812195, 0.32654598355293274, -0.19700516760349274, 0.10152251273393631, -0.42109858989715576, 0.18154624104499817, 0.1569923758506775, 0.44720718264579773, -0.17457561194896698, 0.4417725205421448, -0.14458557963371277, 0.005562317091971636, -0.054018158465623856, 0.04593048244714737, -0.42254605889320374, 0.0578375943005085, -0.025178702548146248, 0.1808670461177826, 0.4064997434616089, 0.012254194356501102, 0.10346899926662445, 0.35800114274024963, -0.4967019557952881, -0.048810914158821106, -0.11473166197538376, 0.16999071836471558, -0.19061782956123352, 0.1710963100194931, 0.11743699014186859, -0.19274765253067017, -0.05312691256403923, 0.08650311827659607, -0.36971601843833923, 0.04316183179616928, 0.02899990603327751, -0.4174603819847107, 0.29906344413757324, 0.3047596216201782, 0.38128846883773804, -0.3832372725009918, 0.16782766580581665, 0.21353021264076233, 0.2516929805278778, -0.4834197759628296, -0.49029016494750977, 0.34691768884658813, 0.26204583048820496, 0.05217449367046356, -0.46443378925323486, -0.24702462553977966, -0.12997056543827057, -0.3237059712409973, -0.17337660491466522, -0.1526300311088562, -0.26384177803993225, 0.20828644931316376, 0.7818559408187866, -0.45008066296577454, -0.27724194526672363, -0.280884712934494, -0.46244561672210693, -0.15245327353477478, -0.45992520451545715, 0.3101292848587036, -0.1888362169265747, 0.13979436457157135, 0.22475796937942505, -0.37009143829345703, -0.10803578048944473, 0.5325199961662292, 0.6679098010063171, -0.17131946980953217, 0.5353639125823975, 1.1757131814956665, -0.48879238963127136, -0.3513016402721405, -0.3383249342441559, -0.20303818583488464, -0.21206218004226685, 0.4124937653541565, -0.5890554785728455, -0.29033398628234863, 0.14548374712467194, 0.06882087886333466, 0.535195529460907, 0.07608181238174438, 0.5601641535758972, -0.22004428505897522, -0.26679369807243347, 0.12242120504379272, 0.2046828716993332, -0.46513211727142334, -0.2982165515422821, 0.16840769350528717, 0.24655228853225708, -0.07469526678323746, -0.047550030052661896, -0.35620129108428955, -0.4737798571586609, 0.0009575040894560516, 0.027464894577860832, -0.22485865652561188, -0.5517515540122986, 0.18896645307540894, -0.18606117367744446, 0.2319316864013672, 0.2339399755001068, 0.08985969424247742, 0.1358126848936081, 0.058745916932821274, -0.12435305118560791, 0.2223706841468811, -0.3943832814693451, 0.03709997609257698, -0.12120402604341507, 0.22555142641067505, 0.13300834596157074, -0.2356765866279602, -0.12516464293003082, -0.1436156928539276, 0.20068234205245972, -0.0415436290204525, 0.2782224714756012, -0.451389342546463, -0.07267741113901138, 0.2793922424316406, 0.3141106069087982, 0.15339934825897217, 0.4798390567302704, -0.13812874257564545, 0.07862947881221771, 0.19907096028327942, -0.3024775981903076, 0.1631861925125122, 0.1172434464097023, -0.03399188816547394, 0.09363768994808197, -0.16731229424476624, 0.09572573751211166, 0.23955805599689484, 0.49867531657218933, 0.11904377490282059, -0.02193109691143036, -0.1365501433610916, -0.003721418557688594, -0.03194301202893257, -0.1024474948644638, 0.05498376861214638, -0.0006230655708350241, 0.25834494829177856, 0.4486604928970337, 0.05162649229168892, 0.22000724077224731, 0.3814365565776825, 0.11818252503871918, 0.4448827803134918, -0.2095745950937271, 0.06683537364006042, -0.0520748645067215, -0.2104487419128418, -0.3762177526950836, 0.2741217017173767, -0.28999730944633484, 0.46765226125717163, -0.0033811291214078665, -0.10917475074529648, 0.17119325697422028, 0.38474711775779724, 0.15742669999599457, 0.15088136494159698, -0.32362470030784607, -0.4260183274745941, -0.020807797089219093, -0.6509115695953369, 0.011548249050974846, 0.07519124448299408, -0.20811688899993896, -0.045574210584163666, 0.5519630312919617, -0.11238550394773483, -0.460675448179245, 0.28529295325279236, 0.15544697642326355, -0.005353418178856373, -0.07211118936538696, -0.4923167824745178, -0.2985171377658844, 0.18282434344291687, 0.3244757652282715, -0.37519580125808716, 0.24056191742420197, -0.2987097203731537, 0.5949242115020752, 0.0070818024687469006, 0.1995694935321808, -0.5025419592857361, -0.044449333101511, 0.19569045305252075, 0.25667569041252136, 0.11291112005710602, 0.3579888939857483, -0.23971424996852875, 0.16014522314071655, 0.02400301769375801, -0.24559640884399414, 0.074818916618824, 0.13708703219890594, 0.01616673730313778, 0.03910353407263756, 0.1613578349351883, 0.10926023870706558, -0.3012368679046631, -0.02140040509402752, 0.015973854809999466, -0.17459550499916077, 0.2296282947063446, -0.12091077864170074, 0.1406245082616806, 0.13459014892578125, 0.3807468116283417, -0.1456930786371231, -0.04143262654542923, 0.40728524327278137, -0.05605683475732803, -0.32506367564201355, 0.015681607648730278, 0.25887924432754517, -0.32197707891464233, 0.04575245454907417, -0.08820292353630066, 0.07219495624303818, -0.09226851165294647, 0.2195572853088379, 0.027364790439605713, -0.12726908922195435, 0.37857428193092346, 0.28002026677131653, 0.03186224400997162, 0.028434650972485542, 0.11529869586229324, 0.18761488795280457, 0.12157213687896729, -0.3521336317062378, -0.22459031641483307, -0.08252895623445511, -0.19788992404937744, -0.05956929177045822, 0.04031631350517273, 0.11883692443370819, -0.08684894442558289, 0.028286423534154892, 0.1316222846508026, -0.2354230433702469, 0.18718703091144562, 0.011381963267922401, -0.10242018848657608, -0.0005352064617909491, -0.04676271229982376, 0.3257642686367035, -0.3627084195613861, 0.10305961966514587, 0.14616131782531738, -0.07104992866516113, 0.1415901780128479, 0.11776987463235855, -0.28811416029930115, 0.1594979465007782, 0.19616828858852386, -0.2248380035161972, 0.3857181966304779, 0.22960978746414185, -0.24184182286262512, -0.07576686143875122, -0.06551377475261688, -0.2925362288951874, 0.24563086032867432, 0.33924204111099243, -0.32855460047721863, -0.060709886252880096, 0.18761059641838074, 0.2256040871143341, 0.007747893687337637, 0.03907189145684242, 0.1842208206653595, 0.12149568647146225, -0.039325613528490067, -0.03006460890173912, 0.3186122477054596, -0.3894956409931183, -0.126503586769104, 0.026338057592511177, 0.3772013485431671, -0.34388822317123413, 0.3469167947769165, 0.6710497736930847, -0.09504275023937225, -0.14507322013378143, -0.08655524253845215, 0.08162946254014969, 0.2596686780452728, 0.019990436732769012, 0.007972776889801025, -0.2765500843524933, 0.05286720395088196, 0.019460279494524002, 0.1756540983915329, -0.08977027237415314, 0.030677149072289467, 0.0034738192334771156, 0.07591305673122406, 0.14636844396591187, 0.008370727300643921, -1.048962116241455, -0.36557117104530334, -0.31346479058265686, -0.572870135307312, 0.30775776505470276, 0.6060733199119568, -0.6947768330574036, -0.22515982389450073, 0.45232120156288147, 0.02836916409432888, 0.49406957626342773, 0.19112075865268707, -0.19856150448322296, 0.2957993745803833, -0.1952729970216751, 0.4228871464729309, -0.08078555017709732, -0.212320476770401, -0.03047570399940014, -0.24001237750053406, -0.21812371909618378, 0.34658893942832947, 0.07638061791658401, 0.23000164330005646, 0.3666777014732361, -0.42260968685150146, 0.08654562383890152, -0.3094393014907837, 0.006441453006118536, -0.21696899831295013, 0.42543351650238037, -0.11703294515609741, 0.05449170246720314, -0.3172265291213989, -0.11501485854387283, -0.26781195402145386, -0.10954385250806808, 0.5319241881370544, 0.1722019910812378, 0.14276909828186035, 0.2098352015018463, -0.2882383167743683, 0.025205668061971664, 0.2928304672241211, -0.11417405307292938, 0.14035269618034363, -0.13886384665966034, 0.007259117905050516, -0.23153260350227356, -0.296843558549881, -0.2495705485343933, -0.3049372732639313, 0.06144311651587486, -0.08349405974149704, 0.5354964137077332, 0.12663231790065765, 0.06443707644939423, 0.2621519863605499, -0.22988829016685486, 0.005569214466959238, -0.13078001141548157, 0.13128900527954102, 0.17027124762535095, -0.2966233193874359, -0.06249469518661499, 0.02093850076198578, -0.6417175531387329, -0.36781027913093567, -0.15940074622631073, -0.07701756805181503, -0.36605924367904663, -0.010904007591307163, -0.25406333804130554, -0.22094924747943878, 0.0379011295735836, -0.009138296358287334, -0.38324403762817383, 0.06962154805660248, -0.36672836542129517, -0.19728600978851318, -0.16499757766723633, -0.014436555095016956, -0.012464373372495174, -0.06973228603601456, -0.23350784182548523, 0.5199623107910156, -0.018419750034809113, -0.05068717524409294, -0.24138320982456207, -0.0900120958685875, -0.14845550060272217, 0.10842916369438171, -0.022767411544919014, -0.054246749728918076, -0.5671974420547485, -0.02109231986105442, 0.12211964279413223, 0.4532342851161957, -0.015432778745889664, -0.3911455273628235, 0.42693769931793213, -0.22273363173007965, -0.05110875517129898, -0.004617593251168728, -0.47253796458244324, -0.19969040155410767, 0.6443195343017578, -0.33815285563468933, -0.3520908057689667, 0.29164502024650574, 0.15445910394191742, 0.07647477090358734, -0.3186611235141754, -0.2930541932582855, -0.3650303781032562, 0.27499473094940186, -0.1910477727651596, -0.1392868161201477, 0.3071107566356659, 0.11016005277633667, -0.0517440102994442, -0.2837564945220947, -0.0698675662279129, -0.14686882495880127, -0.07994081825017929, -0.03749784082174301, -0.17628659307956696, -0.05569090321660042, -0.288753479719162, -0.1327674686908722, 0.1410393863916397, -0.2002614438533783, -0.12547515332698822, 0.18818317353725433, 0.33599135279655457, 0.07691635936498642, -0.15401721000671387, -0.1366637498140335, -0.22413641214370728, 0.4023599922657013, 0.08853133022785187, 0.00931943766772747, -0.16120050847530365, 0.3386138379573822, 0.09084762632846832, 0.5383766889572144, -0.02603534609079361, -0.2644176185131073, 0.46396055817604065, -0.10569778084754944, 0.17854784429073334, 0.1345386952161789, 1.5048500299453735, -0.24816928803920746, 0.18025507032871246, -0.4626428186893463, -0.36175042390823364, 0.054983630776405334, -0.11342165619134903, -0.18459825217723846, -0.16038461029529572, -0.02925773337483406, -0.3718326687812805, 0.02817314863204956, -0.8222458362579346, -0.5933642983436584, 0.3229222297668457, -0.26315027475357056, 0.14120720326900482, -0.140532448887825, 0.06238008290529251, -0.5365806221961975, 0.35954540967941284, 0.051047369837760925, -0.593999445438385, 0.1403178870677948, -0.15303243696689606, 0.8679476380348206, 0.15254153311252594, 0.13603003323078156, -0.057808149605989456, 0.1163271814584732, 0.16025376319885254, 0.3282776176929474, -0.2793852984905243, -0.029352160170674324, -0.0733659416437149, 0.06225041300058365, -0.26236140727996826, -0.1316475123167038, 0.07217764854431152, -0.0813666433095932, -0.17440886795520782, -0.061936840415000916, 0.14804640412330627, -0.334995299577713, 0.11403970420360565, -0.2561691999435425, -0.6372013092041016, -0.10373758524656296, 0.5447326302528381, 0.1999831646680832, -0.15366916358470917, 0.3412565588951111, 0.08011943846940994, -0.37226179242134094, -0.2067691832780838, 0.22452564537525177, 0.3929648697376251, 0.039935700595378876, -0.06405900418758392, -0.08279132843017578, -0.1320420503616333, -0.10342725366353989, 0.2970592975616455, -0.05186569690704346, 0.1073213741183281, 0.40128570795059204, 0.12829598784446716, 0.13509345054626465, -0.19548889994621277, 0.19352729618549347, 0.11272566765546799, -0.09057220071554184, -0.13637658953666687, -0.1777508407831192, 0.21008096635341644, -0.08188854157924652, 0.1885875016450882, 0.13098087906837463, 0.47140783071517944, 0.3340440094470978, -0.05223029851913452, 0.032544203102588654, 0.21794934570789337, 0.16430750489234924, 0.26927903294563293, 0.06383876502513885, -0.012674720026552677, 0.2871546745300293, 0.1469404548406601, -0.09443933516740799, 0.10497458279132843, 0.08719097077846527, -0.14089557528495789, -0.10359731316566467, -0.07641666382551193, -0.2404622882604599, 0.220366969704628, -0.14754623174667358, -0.022841166704893112, 0.17407406866550446, 0.1544516384601593, -0.05710531026124954, -0.1933545172214508, -0.03703334182500839, 0.1137123703956604, 0.21838779747486115, 0.09722436219453812, -0.10324583947658539, 0.15344639122486115, -0.10116562992334366, 0.4163593053817749, -0.15101905167102814, -0.08494823426008224, -0.015489082783460617, 0.292248010635376, 0.3252660930156708, -0.23149757087230682, 0.024954568594694138, 0.3338327407836914, 0.0387519896030426, 0.2653256356716156, 0.10260570794343948, -0.03290195018053055, -0.07868935167789459, -0.24816513061523438, 0.08915429562330246, -0.10751194506883621, -0.05297539383172989, -0.2016155868768692, -0.6153625249862671, -0.31669726967811584, -0.4627188444137573, 0.48768168687820435, 0.5368339419364929, -0.6907146573066711, -0.07485490292310715, -0.08623959124088287, -0.4931838810443878, 0.10296662896871567, 0.13556502759456635, 0.036270059645175934, 0.14325104653835297, -0.8628087043762207, 0.2530153691768646, -0.15658541023731232, 0.05293011665344238, 0.4963710606098175, -0.10347012430429459, -0.17374087870121002, 0.33555591106414795, 0.0028538857586681843, 0.24916137754917145, 0.2225673645734787, 0.664010763168335, 0.11459960788488388, 0.2860602140426636, -0.048802874982357025, -0.24252277612686157, 0.13504377007484436, 0.12238661199808121, 0.34368446469306946, 0.34193935990333557, 0.10487497597932816, 0.23162320256233215, 0.38260170817375183, 0.06557411700487137, -0.06449964642524719, -0.032872654497623444, -0.479544997215271, 0.21864137053489685, -0.39344170689582825, 0.006743561942130327, -0.007804704364389181, -0.25253093242645264, 0.16270864009857178, 0.15323540568351746, 0.300696462392807, 0.11107047647237778, 0.02819269895553589, 0.16489017009735107, 0.19012577831745148, -0.1514156460762024, -0.0563243106007576, -0.09820803999900818, 0.6573142409324646, 0.44802942872047424, -0.19712050259113312, -0.06051868200302124, -0.16504210233688354, 0.12547969818115234, -0.18999823927879333, 0.21180593967437744, 0.28162068128585815, 0.397597998380661, 0.48900139331817627, -0.10346922278404236, -0.21837250888347626, -0.26299184560775757, 0.22613193094730377, -0.15800338983535767, -0.14243727922439575, -0.02767728455364704, -0.1945423036813736, 0.1617811620235443, 0.16203097999095917, 0.1159704402089119, 0.0794551894068718, 0.011067301966249943, 0.6166184544563293, -0.42137059569358826, -0.12029300630092621, 0.0966171845793724, -0.13796980679035187, -0.02024475671350956, -0.328366756439209, 0.08239024877548218, 0.3537418246269226, -0.19889353215694427, -1.2362667322158813, 0.00693418737500906, -0.35067930817604065, 0.07772316038608551, -0.07715064287185669, -0.17306643724441528, -0.6637282371520996, 0.18633562326431274, 0.5019341707229614, -0.1841573566198349, -0.2526550590991974, -0.010256415233016014, -0.5675445199012756, 0.31407180428504944, 0.2882510721683502, 0.0018669458804652095, -0.11301789432764053, -0.09671293199062347, -0.05929519236087799, -0.13733932375907898, -0.4403593838214874, 0.03219578042626381, 0.15112560987472534, -0.12241679430007935, -0.17813444137573242, 0.1375836580991745, 0.04298440366983414, -0.02739318646490574, -0.04464740678668022, -0.1720733940601349, -0.02644294872879982, -0.09555765986442566, 0.3785516619682312, 0.22353577613830566, 0.07326807826757431, -0.4262663424015045, 0.14008097350597382, 0.06911440938711166, -0.31794849038124084, -0.20930950343608856, -0.4857860505580902, 0.012533747591078281, -0.05034532770514488, 0.19586168229579926, 0.08709067106246948, -0.005463197361677885, -0.209005668759346, -0.012642689049243927, 0.0008285249932669103, 0.7775306105613708, 0.3117638826370239, 0.18540236353874207, -0.03972317650914192, 0.28355711698532104, -0.28101038932800293, 0.667800784111023, -0.10458716005086899, -0.18952351808547974, 0.22096361219882965, -0.284105509519577, 0.3128923177719116, 0.22238384187221527, 0.25463178753852844, 0.14405298233032227, -0.2658904790878296, 0.06183229386806488, 0.4713747501373291, 0.06050831079483032, -0.04094923660159111, -0.17147940397262573, 0.5325220823287964, -0.12163831293582916, -0.3627176284790039, 0.21507716178894043, 0.06595035642385483, -0.2604328393936157, -0.11178094148635864, -0.04877297952771187, -0.34853488206863403, 0.05925550311803818, 0.2605707049369812, 0.06275422126054764, -0.13749109208583832, -0.18642617762088776, 0.055268142372369766, -0.046130985021591187, -0.2499397248029709, -0.019272945821285248, -0.21233539283275604, -0.04746221750974655, -0.2802295684814453, 0.3120970129966736, 0.11915798485279083, 0.1434338539838791, -0.25843387842178345, -0.020084254443645477, 0.09655631333589554, 0.3080507516860962, 0.041001107543706894, 0.09211675077676773, -0.3175657391548157, 0.09485442191362381, 0.1607123464345932, 0.7023656964302063, -0.12378852814435959, -0.12510782480239868, 0.42551544308662415, 0.02654988504946232, -0.06609292328357697, 0.09129523485898972, -0.5523911714553833, 0.24938780069351196, -0.1368446797132492, 0.0835125520825386, 0.47945472598075867, 0.07177171856164932, 0.16503365337848663, -0.09782258421182632, 0.27711597084999084, 0.1997801512479782, -0.00838516280055046, -0.2017872929573059, 0.10757917910814285, -0.20798887312412262, -0.02196657843887806, 0.39076700806617737, -0.16813640296459198, 0.177793949842453, 0.08823507279157639, -0.09378841519355774, -0.3993428647518158, 0.5890360474586487, 0.0667334496974945, 0.33633217215538025, 0.10696448385715485, 0.16726630926132202, 0.1637292057275772, 0.11322642862796783, 0.10529696196317673, -0.34034809470176697, -0.23492786288261414, -0.35203826427459717, 0.14675718545913696, -0.041214678436517715, -0.026364454999566078, -0.5478373765945435, 0.022966040298342705, -0.19633576273918152, 0.3795844316482544, -0.16970549523830414, -0.13187551498413086, -0.4985417425632477, -0.09579581767320633, 0.07121811807155609, -0.03326084837317467, 0.024693194776773453, -0.04780477285385132, -0.24806837737560272, 0.38476791977882385, -0.08358772099018097, -0.1438414305448532, 0.18990007042884827, 0.02478356659412384, -0.19663508236408234, -0.4286203980445862, -0.08264975994825363, 0.20092150568962097, -0.06931567937135696, -0.04191577807068825, -0.37472930550575256, -0.016612792387604713, 0.004796924535185099, 0.4356623589992523, -0.0003082568000536412, 0.14669020473957062, -0.12709228694438934, 0.2916519045829773, 0.09307161718606949, -0.6185342073440552, -0.07862590253353119, 0.06803624331951141, -0.11261031031608582, -0.08243080228567123, 0.24257585406303406, 0.18762628734111786, -0.15019658207893372, 0.23017701506614685, 0.004433607682585716, 0.1083538755774498, 0.2837839722633362, -1.3409018516540527, 0.43122681975364685, 0.3262691795825958, 0.4036112427711487, -0.3615345358848572, 0.48995766043663025, -0.7614760398864746, 0.30371421575546265, 0.2617197632789612, -0.01667676866054535, -0.3674585521221161, -0.30846670269966125, 0.169746533036232, -0.46978187561035156, -0.32399800419807434, 0.498935729265213, 0.1320594698190689, 0.14375312626361847, 0.23395322263240814, 0.1549455225467682, 0.17815423011779785, 0.5329802632331848, -0.18768410384655, -0.10954636335372925, -0.025954293087124825, -0.08250456303358078, -0.05895308405160904, -0.4632047414779663, 0.4094237685203552, -0.3669731020927429, -0.014526430517435074, -0.4219256639480591, 0.4802129864692688, -0.40002572536468506, -0.2834334075450897, -0.8001315593719482, 0.1910385638475418, 0.08819746971130371, -0.03644672408699989, 0.26932668685913086, -0.06876107305288315, -0.1293092519044876, -0.08740735054016113, 0.23425325751304626, -0.7748894095420837, -0.010068324394524097, 0.3871125280857086, 0.3891986608505249, -0.03725820407271385, -0.5136185884475708, 0.22580905258655548, 0.013075522147119045, -0.22636136412620544, -0.7495183944702148, 0.2581024765968323, 0.23733128607273102, -0.030486296862363815, 0.5142875909805298, -0.13791146874427795, 0.2353253960609436, 0.16513392329216003, 0.43848803639411926, 0.08397210389375687, 0.3768724501132965, -0.16087692975997925, -0.34105485677719116, 0.029360735788941383, -0.04385850578546524, 0.5335180759429932, -0.38235151767730713, -0.22232767939567566, -0.1830519437789917, -0.16867482662200928, 0.4193205237388611, -0.01743020862340927, -0.20968422293663025, 0.062372222542762756, -0.2860058844089508, -0.12017306685447693, 0.15046629309654236, 0.34623101353645325, -0.27389904856681824, -0.4855787456035614, -0.20391780138015747, 0.07448446750640869, -0.008654494769871235, 0.10251640528440475, 0.32555100321769714, -0.3854801654815674, 0.4759442210197449, -0.29134905338287354, 0.2599060833454132, 0.03566790744662285, -0.16265568137168884, 0.07015819102525711, 0.20745788514614105, 0.30352047085762024, -0.25241509079933167, -0.09586956351995468, -0.24455036222934723, 0.12141358852386475, 0.23409797251224518, 0.4385702311992645, -0.26276156306266785, 0.2114255577325821, -0.00210944889113307, 0.18283219635486603, 0.2956708073616028, 0.2936319410800934, -0.241963192820549, -0.005479462910443544, -0.6028346419334412, 0.3196614682674408, -0.07512280344963074, -0.11761864274740219, 0.33782798051834106, 0.013240904547274113, 0.009609837085008621, 0.6813032031059265, -0.4965546429157257, -0.23822051286697388, 0.44416677951812744, -0.15868882834911346, 0.3920871317386627, -0.08189740777015686, 0.1846102774143219, -0.1345471441745758, -0.27158406376838684, 0.30009064078330994, 0.032438214868307114, 0.004691652022302151, 0.11917845159769058, -0.18927286565303802, 0.2862025499343872, 0.32011163234710693, 0.25487104058265686, -0.10210957378149033, 0.06666357070207596, -0.07472407817840576, -0.524409830570221, -0.006830431986600161, -0.055445026606321335, -0.4865584969520569, 0.47033846378326416, 0.45182767510414124, 0.0210441704839468, 0.025535032153129578, -0.34909966588020325, 0.08372171968221664, 0.06821803003549576, 0.01902826502919197, 0.34099963307380676, 0.2540804147720337, -0.37981513142585754, -0.055525001138448715, 0.1612095832824707, 0.45284706354141235, -0.5397581458091736, -0.3209798038005829, 0.21595919132232666, 0.3404110372066498, -0.09780414402484894, -0.38861244916915894, 0.03307285159826279, -0.1592625379562378, -0.26917222142219543, 0.5478776693344116, -0.3451283574104309, -0.6368390321731567, -0.4577900767326355, 0.4965619742870331, 0.2271549254655838, -0.0683925673365593, -0.21887730062007904, 0.22678811848163605, -0.5999326705932617, 0.19806136190891266, 0.08322615921497345, -0.2013109177350998, -0.11858343333005905, -0.21818897128105164, 0.15367364883422852, -0.18456698954105377, 0.02035459317266941, 0.12198679894208908, 0.4093038737773895, 0.7584086656570435, 0.21771946549415588, -0.170162633061409, 0.06698350608348846, -0.0457669235765934, 0.27777835726737976, -0.07767457515001297, -0.1918732076883316, -0.10783398151397705, 0.13868461549282074, -0.13962024450302124, 0.231037899851799, -0.16504789888858795, -0.20624282956123352, 0.21752694249153137, 0.08646269887685776, -0.11949175596237183, 0.021519735455513, 0.08441098779439926, -0.026417018845677376, -0.20537495613098145, -0.07074666023254395, 0.0732002705335617, -0.19686049222946167, -0.055150680243968964, -0.09554319828748703, -0.07035670429468155, 0.02520066872239113, 0.30585721135139465, 0.02639201283454895, 0.0982467457652092, -0.5802956819534302, 0.21665526926517487, 0.25534507632255554, -0.4261034429073334, -0.016758469864726067, -0.11203692853450775, -0.4294368028640747, 0.029860617592930794, -0.14968465268611908, 0.17685575783252716, -0.01778843067586422, 0.05203835666179657, -0.0573563352227211, -0.016226746141910553, 0.0699843093752861, 0.11034546047449112, -0.13701270520687103, -0.7663833498954773, -0.19005529582500458, -0.26219654083251953, -0.27083858847618103, 0.16195477545261383, -0.1977211982011795, -0.13193663954734802, 0.25138500332832336, 0.02999076060950756, -0.1534646600484848, 0.2993389964103699, 0.15827231109142303, 0.03477834537625313, 0.1471278965473175, -0.5007359385490417, 0.06829545646905899, 0.2842698395252228, 0.013808122836053371, 0.07719764113426208, -0.06642679870128632, 0.08675963431596756, -0.16307498514652252, -0.20851102471351624, 0.2265598028898239, -0.1592072993516922, -0.274087518453598, 0.09184243530035019, 0.019513452425599098, 0.6959941983222961, -0.10830477625131607, -0.09087305516004562, -0.023393679410219193, -0.34189626574516296, 0.28122812509536743, 0.1596667766571045, 0.016884000971913338, 0.19174893200397491, -0.6793553829193115, 0.30433371663093567, -0.037332065403461456, -0.4551401436328888, -0.08099108934402466, 0.10536790639162064, 0.06238315626978874, 0.025407861918210983, -0.0012572030536830425, -1.1330355405807495, -0.027907075360417366, -0.23934033513069153, 1.1086279153823853, 0.29746490716934204, 0.04230798780918121, -0.8013783097267151, -0.5663509368896484, 0.08514778316020966, -0.3849833607673645, 0.5210052132606506, -0.06692537665367126, 0.7837506532669067, 0.29142025113105774, -0.5827184319496155, -0.10721930116415024, -0.14321938157081604, -0.13892962038516998, -0.04615592584013939, -0.23413506150245667, -0.1883479207754135, 0.06422239542007446, -0.2005012184381485, 0.014857707545161247, 0.34933167695999146, -0.0330168791115284, 0.2425989806652069, 0.25642693042755127, 0.46754190325737, 0.08036231994628906, 0.11668118834495544, 0.4855227768421173, -0.7511577606201172, 0.44717860221862793, -0.09520566463470459, 0.19707682728767395, 0.08080330491065979, 0.4112253189086914, -0.40505146980285645, 0.12541204690933228, 0.10353928804397583, -0.09134595841169357, -0.30612912774086, -0.13358737528324127, -0.0654631108045578, 0.6391777396202087, 0.2144046574831009, -0.2996808886528015, 0.24829666316509247, 0.18100130558013916, -0.03853872790932655, -0.27157139778137207, -0.06505550444126129, 0.03420766443014145, -0.2162943184375763, 0.30771347880363464, -0.44970646500587463, 0.469349205493927, 0.08305900543928146, 0.1518385112285614, 0.6218026280403137, 0.018008608371019363, -0.5779585242271423, 0.2049848437309265, 0.24777057766914368, -0.17157605290412903, 0.08994963765144348, -0.42623335123062134, 0.6153193116188049, -0.23333504796028137, -0.3787078261375427, 0.49316349625587463, 0.4657876491546631, 0.03593882545828819, -0.08748659491539001, 0.2842751145362854, -0.13112473487854004, -0.039546865969896317, -0.2484322339296341, -0.048204999417066574, -0.24247585237026215, -0.39353662729263306, -0.32670462131500244, 0.02882259711623192, 0.13217417895793915, -0.334249347448349, 0.08941417187452316, -0.2186947762966156, 0.1907843053340912, 0.13617759943008423, -0.06513912230730057, -0.08160590380430222, -0.2863323986530304, -0.273592084646225, 0.223061665892601, -0.017140287905931473, 0.2179030179977417, -0.22686530649662018, 0.1614406704902649, -0.2044782191514969, 0.0756557434797287, 0.2775198221206665, -0.2253989577293396, -0.2777116000652313, 0.20228736102581024, 0.11679244041442871, -0.17656922340393066, 0.13461056351661682, 0.03208855167031288, 0.08462568372488022, -0.19831059873104095, 0.36454445123672485, 0.3309425711631775, 0.1263757199048996, -0.1483798623085022, 0.01925225928425789, 0.38328680396080017, -0.038932282477617264, 0.08662606030702591, 0.033559005707502365, 0.008148790337145329, 0.13717176020145416, -0.0640123263001442, 0.12874412536621094, -0.27255845069885254, -0.18700967729091644, 0.144786074757576, 0.08885888755321503, -0.26625916361808777, -0.03246072679758072, -0.10434000194072723, -0.24933111667633057, -0.34054121375083923, -0.0025591712910681963, -0.17136137187480927, -0.10339856147766113, 0.25639721751213074, 0.03526770696043968, 0.15414758026599884, 0.04546565189957619, -0.29089874029159546, 0.13775914907455444, -0.0586002953350544, 0.42626211047172546, -0.16341663897037506, -0.3752990961074829, 0.24200274050235748, -0.3422059416770935, 0.6906269788742065, 0.01157359778881073, -0.2105986624956131, 0.11239421367645264, 0.05772867798805237, 0.14480876922607422, 0.1578953117132187, 0.09749025851488113, 0.26070907711982727, 0.14182734489440918, 0.9291574358940125, 0.11695779114961624, -0.6545443534851074, 0.2086716890335083, 0.25226083397865295, 0.10348980128765106, -0.021537289023399353, -0.1287035495042801, 0.2622038722038269, 0.14566157758235931, -0.2635943293571472, 0.043258026242256165, 0.3529658913612366, 0.18557149171829224, 0.006580232642591, 0.02236960455775261, 0.09284700453281403, -0.07692557573318481, 0.2341773808002472, -0.08278686553239822, -0.7790114879608154, 0.0804922878742218, 0.22003518044948578, -0.06651481986045837, -0.2252936214208603, 0.1832793951034546, -0.5562949180603027, -0.07646399736404419, 0.05624448135495186, -0.0027916659601032734, -0.10811928659677505, 0.3319564461708069, 0.033924687653779984, -0.06792400032281876, -0.06285878270864487, -0.005992916412651539, -0.05253105238080025, 0.22799228131771088, 0.17201194167137146, 0.33182886242866516, 0.10297694057226181, 0.048057813197374344, -0.3126598000526428, -0.6245554089546204, -0.1053319200873375, -0.1316390037536621, 0.18187323212623596, -0.42159536480903625, 0.3299832046031952, -0.12331078201532364, 0.20681867003440857, 0.5115255117416382, -0.25649985671043396, 0.27856117486953735, -0.762653112411499, -0.15102818608283997, -0.3470838665962219, -0.22832214832305908, 0.22372424602508545, 0.4434897303581238, 0.10151553153991699, -0.1183108240365982, -0.09426790475845337, -0.18303640186786652, -0.059771858155727386, -0.23202942311763763, -0.32018762826919556, 0.4575619101524353, 0.10379531234502792, 0.055865250527858734, -0.31313347816467285, 0.07471144199371338, 0.11666727066040039, 0.15407362580299377, 0.09595026820898056, 0.3348213732242584, -0.03556134179234505, 0.06543450057506561, 0.1877942830324173, -0.25294408202171326, 0.1847875565290451, 0.2350364774465561, 0.28775668144226074, -0.09546774625778198, -0.11054354906082153, 0.1874876767396927, -0.02455749548971653, 0.17520827054977417, 0.23436954617500305, -0.3133102357387543, 0.19090963900089264, -0.4280594289302826, -0.12467392534017563, 0.30275145173072815, 0.14927084743976593, 0.24553602933883667, -0.19962283968925476, -0.43688076734542847, -0.07144300639629364, 0.09972982853651047, -0.1493980437517166, -0.032835353165864944, -0.5837517976760864, 0.007631375454366207, 0.18138030171394348, 0.2501562237739563, 0.06111086905002594, -0.02160613052546978, 0.2146717607975006, -0.41426944732666016, -0.043093085289001465, -0.6548447608947754, -0.26352688670158386, -0.1735013872385025, -0.2666070759296417, 0.7492905259132385, -0.32059821486473083, 0.4112550914287567, -0.21873590350151062, 0.3186807334423065, 0.5042089819908142, -0.12548303604125977, -0.507760763168335, 0.20141834020614624, -0.14844194054603577, -0.18897783756256104, 0.4473789930343628, 0.030945049598813057, -0.2836645841598511, 0.2679503858089447, 0.3362008035182953, -0.20647679269313812, -0.07722999900579453, -0.3113725185394287, 0.2565918266773224, -0.07065287232398987, 0.3726246953010559, -0.3976539075374603, -0.26388034224510193, -0.22341638803482056, -0.02168130688369274, -0.36337584257125854, 0.5074337720870972, -0.18416953086853027, -0.07784973084926605, 0.1786142736673355, 0.000156568072270602, 0.1206219345331192, 0.3975772261619568, 0.04516734555363655, 0.06790833175182343, -0.36459919810295105, 0.06570445746183395, -0.439916729927063, -0.33086174726486206, 0.10370573401451111, 0.18425214290618896, -0.0033418615348637104, -0.02177315391600132, 0.12554681301116943, -0.8503263592720032, 0.01809113100171089, -0.08915073424577713, -0.07484143227338791, 0.7792266011238098, -0.3400716483592987, -0.3561136722564697, 0.06247301399707794, 0.08281920105218887, 0.21937115490436554, 0.3078521192073822, 0.09414645284414291, 0.09666097909212112, -0.09010691195726395, 0.2614375352859497, -0.05894404649734497, -0.36885401606559753, 0.41777151823043823, -0.007431373931467533, -1.0536023378372192, -0.0250034611672163, -0.2916833758354187, 0.19832614064216614, -0.0832291767001152, 0.10374059528112411, -0.43422043323516846, 0.14617520570755005, 0.15692655742168427, -0.3874939978122711, -0.07416411489248276, 0.0613366924226284, 0.2190374732017517, 1.6087160110473633, 0.8665898442268372, 0.21373198926448822, 0.14035895466804504, -0.8300204277038574, -0.4635769724845886, 0.17402736842632294, 0.12933646142482758, 0.04207579046487808, 0.012484582141041756, -0.46763932704925537, -0.42703819274902344, 0.23361408710479736, 0.3892183303833008, 0.4355689585208893, 0.37047818303108215, -0.3279367685317993, -0.13999629020690918, 0.5384407639503479, 0.050043053925037384, -0.09087381511926651, 0.33761364221572876, -0.01994662545621395, -0.2158488780260086, 0.146002396941185, -0.13384535908699036, 0.446750283241272, 0.1425129920244217, -0.17847587168216705, 0.31372734904289246, 0.5264369249343872, -0.08787056058645248, 0.4177027642726898, 0.5404192805290222, 0.10201264917850494, 0.0885128527879715, -0.06914237886667252, -0.12329373508691788, 0.8292077779769897, 0.11783058196306229, -0.09318024665117264, 0.6020123362541199, 0.47321632504463196, 0.07874838262796402, 0.3958567976951599, 0.28953787684440613, -0.13456666469573975, -0.35917115211486816, -0.4772527813911438, -0.1464562714099884, 0.3709498643875122, -0.005752743687480688, -0.09279584884643555, 0.2531902492046356, 0.11695340275764465, -0.0179030429571867, 0.5318978428840637, 0.41808071732521057, 0.03371913731098175, 0.08384553343057632, 0.2768433094024658, 0.38758379220962524, -0.47241759300231934, -0.19817319512367249, 0.042213957756757736, -0.1982336938381195, -0.8200039863586426, -0.2238304764032364, -0.3623366951942444, -0.3869083821773529, 0.19598180055618286, 0.36053916811943054, -0.37426507472991943, 0.24618200957775116, -0.9118712544441223, -0.18661536276340485, 0.12281826138496399, 0.058103155344724655, 0.2551176846027374, 0.35334911942481995, 0.11881563067436218, -0.31975501775741577, 0.23754945397377014, 0.4534238874912262, 0.6040514707565308, -0.20660173892974854, -0.06559622287750244, 0.10809119790792465, 0.14865374565124512, 0.14894111454486847, -0.08884786069393158, 0.263843834400177, -0.22402739524841309, -0.036090314388275146, -0.17496180534362793, -0.17357106506824493, 0.05520741641521454, 0.0769403874874115, 0.4192183017730713, 0.47549399733543396, -0.15424001216888428, -0.3544103801250458, -0.11208691447973251, 0.16817325353622437, 0.2422875463962555, 0.824309229850769, 0.49386680126190186, 0.1489258110523224, 0.2281053364276886, 1.2867711782455444, 0.015276140533387661, -0.33923858404159546, -0.15096521377563477, -0.008292937651276588, 0.10839559137821198, -0.07485127449035645, 0.4137492775917053, 0.06640804558992386, 0.6768532395362854, 0.11821340769529343, -0.10870075970888138, 0.20997408032417297, -0.00336196250282228, 0.3684918284416199, 0.5012075304985046, -0.08556932210922241, -0.11165040731430054, -0.23294655978679657, -0.07523316890001297, -0.3339419960975647, -0.09942247718572617, -0.08441467583179474, -0.3268495798110962, -0.2204841524362564, 0.18960228562355042, -0.017474014312028885, -0.0856480598449707, 0.09476138651371002, 0.16657666862010956, -0.2174261510372162, 0.40183231234550476, 0.3057433068752289, -0.22977912425994873, -0.1475655436515808, -0.0018268481362611055, 0.23512525856494904, 1.0525119304656982, -0.1533699631690979, 0.35614505410194397, -0.23733234405517578, -0.3756925165653229, 0.04471193253993988, -0.7607347369194031, -0.9979170560836792, -0.10948792099952698, 0.4497756361961365, -0.19102133810520172, -0.8429239392280579, 0.4088379740715027, 0.20287498831748962, -0.5359956622123718, -0.15055203437805176, 0.40310192108154297, -0.36553624272346497, -0.40586888790130615, 0.752125084400177, 0.20725594460964203, -0.25170278549194336, -0.6068149209022522, -0.4788637161254883, -0.26287442445755005, 0.16587038338184357, -0.3882060945034027, 0.03084559366106987, -0.056061338633298874, -0.3363991677761078, 0.17085501551628113, -0.10850226879119873, 0.2094387412071228, -0.023046616464853287, -0.15790340304374695, 0.14435169100761414, -0.14683924615383148, 0.0995604619383812, 0.37197017669677734, 0.15259914100170135, 0.15028029680252075, -0.045039381831884384, -0.010509996674954891, -0.18231229484081268, -0.1776910126209259, 0.15636685490608215, 0.04641950875520706, -0.24528442323207855, 0.173653706908226, -0.12472357600927353, -0.03519411385059357, -0.1525282859802246, 0.07012350857257843, -0.24382856488227844, -0.00038037222111597657, -0.013972334563732147, 0.2934180200099945, 0.5453037619590759, -0.24881845712661743, -0.2936406433582306, -0.16990317404270172, 0.11244544386863708, -0.04114234074950218, -0.06532574445009232, -0.1293686330318451, -0.0043463627807796, -0.0032649822533130646, 0.17323236167430878, -0.031233016401529312, -0.20912466943264008, 0.37822845578193665, 0.16285468637943268, -0.19725890457630157, -0.35353991389274597, -0.10573740303516388, 0.3855913281440735, 0.003709562821313739, 0.037576355040073395, 0.15588629245758057, -0.1451663076877594, 0.27288246154785156, 0.1947120577096939, 0.008595552295446396, -0.077138252556324, -0.44639134407043457, 0.5707526206970215, 0.21704639494419098, -0.44049060344696045, -0.6101282835006714, -0.035541072487831116, 0.08390692621469498, 0.17846453189849854, 0.4289807677268982, -1.119921088218689, -0.3923371434211731, 0.2977461516857147, -0.028689928352832794, -0.22626131772994995, -0.06086491793394089, -1.1528176069259644, -0.29252102971076965, -0.2504161596298218, 0.07848973572254181, -0.2540281116962433, -0.24408553540706635, -0.02228170447051525, -0.014513084664940834, -0.07994039356708527, 0.04510176181793213, 0.4596155285835266, -0.1799311488866806, -0.17628653347492218, 0.06815469264984131, 0.4276112914085388, 0.09973740577697754, 0.6136735677719116, 0.13977622985839844, 0.5356314182281494, 0.8904318809509277, -0.24212732911109924, -0.25498420000076294, 0.06001812219619751, 0.1560623049736023, 0.3707468509674072, -0.14619822800159454, 0.35942158102989197, 0.1410413533449173, 0.41951844096183777, 0.1680678129196167, 0.2846614122390747, 0.9538136124610901, -0.20597891509532928, 0.010851102881133556, 0.12014853954315186, 0.1131623312830925, 0.24363280832767487, -0.4608665406703949, 0.16713468730449677, 0.06998860090970993, -0.25737982988357544, 0.20579566061496735, -0.014022190123796463, 0.35935819149017334, -0.025140071287751198, -0.11908721923828125, -0.035882674157619476, 0.31598931550979614, 0.06624434143304825, 0.28358423709869385, -0.015650665387511253, 0.13607650995254517, -0.19204282760620117, -0.3652063012123108, -0.20302270352840424, -0.38393640518188477, -0.48699718713760376, -2.4954023361206055, 1.0919088125228882, 0.8111632466316223, 0.7566989064216614, -0.29976069927215576, -0.36731061339378357, -0.4483649730682373, 0.2963816821575165, -0.32348379492759705, 0.5332151651382446, 0.02427452616393566, 0.8481301665306091, -0.7010313868522644, -0.2123531699180603, 0.5833342671394348, 0.5476528406143188, -0.549008846282959, 0.04818371683359146, 0.3852774202823639, 0.04820045083761215, -0.13243013620376587, -0.12963423132896423, 0.23941098153591156, -0.163469597697258, -0.12189013510942459, -0.11911662667989731, -0.2993047535419464, -0.030203506350517273, 0.15347395837306976, 0.12332703173160553, -0.11408913880586624, 0.13355234265327454, -0.17797724902629852, 0.21667693555355072, 0.5246528387069702, -0.11657101660966873, -0.07890712469816208, 0.24910849332809448, 0.0732094869017601, -0.09578745067119598, -0.24619290232658386, 0.34795406460762024, -0.1607740819454193, -0.16477669775485992, 0.142192080616951, 0.24585115909576416, 0.3230738043785095, -0.536903440952301, -0.1107582375407219, -0.061380431056022644, 0.7263178825378418, -0.04923313483595848, -0.10665912926197052, 0.21862955391407013, -0.230964794754982, -0.20969952642917633, 0.4393485188484192, 0.1309991180896759, 0.13207750022411346, 0.36209702491760254, 0.29846346378326416, 0.06625698506832123, -0.012939554639160633, -0.10497929155826569, 0.05106930807232857, -0.1670255959033966, -0.13213515281677246, -0.18255221843719482, 0.1319548338651657, -0.042361773550510406, -0.02255888842046261, 0.014323582872748375, -0.2273622304201126, 0.1509152203798294, -0.378389447927475, 0.13297778367996216, -0.5554472208023071, -0.1929122507572174, 1.2237805128097534, 0.35266053676605225, -0.10604346543550491, 0.6878414154052734, 0.29187101125717163, -0.04689721763134003, -0.13008153438568115, -0.6176410913467407, -0.053212545812129974, -0.5345768928527832, 0.036575570702552795, -0.5543323159217834, -0.6298037171363831, -0.3103336989879608, -0.22711291909217834, 0.9809463024139404, -0.3003232777118683, 0.34770047664642334, 0.12390191853046417, 0.3633105754852295, 0.1715264618396759, -0.12588612735271454, 0.020943276584148407, 0.17328299582004547, 0.18090054392814636, -0.1230209544301033, -0.16426196694374084, 0.3566492795944214, -0.12047544121742249, -0.0024983796756714582, 0.01374767441302538, 0.2870408892631531, 0.2581380307674408, -0.21826951205730438, 0.13331261277198792, 0.1037769615650177, 0.22170183062553406, -0.13141649961471558, -0.17912282049655914, 0.1315532624721527, -0.07403935492038727, -0.01963646523654461, -0.13151389360427856, 0.22631610929965973, 0.3263075351715088, -0.3801606595516205, 0.03273355960845947, 0.03590588644146919, 1.0652315616607666, -0.22827546298503876, -0.2414274513721466, 0.47639161348342896, -0.0632077008485794, -0.1951395571231842, 0.8517628312110901, 0.3726564049720764, 0.42571932077407837, 0.6770371794700623, 0.2067885398864746, -0.12700437009334564, -0.1750994771718979, 0.038748860359191895, 0.18732190132141113, -0.14141501486301422, 0.12226506322622299, 0.17337632179260254, -0.2583986818790436, -0.13904128968715668, -0.1708991974592209, 0.4555768668651581, -0.08187959343194962, 0.027552522718906403, 1.2692580223083496, 0.05110206454992294, -0.7061704993247986, -0.044807255268096924, -0.03931523114442825, 0.5630251169204712, 1.2002218961715698, -0.42499133944511414, 0.4874304533004761, -0.2476026862859726, 0.22878436744213104, -0.4335467517375946, 0.20292896032333374, 0.6905028820037842, -0.6052550673484802, 0.6118873953819275, -0.31647172570228577, 0.6605181694030762, 0.08045262843370438, 0.8186995387077332, 0.005938171409070492, -0.6553736925125122, -0.12727591395378113, 0.19683416187763214, -0.3778540790081024, -0.3572762906551361, 0.11498353630304337, 0.035405997186899185, 0.17336438596248627, -0.0015871552750468254, -0.32990097999572754, 0.26625457406044006, 0.10518592596054077, -0.16752782464027405, -0.07384960353374481, -0.08060295134782791, 0.5036062002182007, -0.422209769487381, -0.14672893285751343, -0.02941681630909443, -0.29392680525779724, -0.05357302725315094, -0.04642397165298462, 0.008223045617341995, -0.09057983011007309, -0.1469941884279251, -0.4903129041194916, 0.19739212095737457, 0.07313578575849533, 0.18820306658744812, 0.021756865084171295, 0.0070205312222242355, 0.5680767297744751, -0.1278536170721054, -0.17335261404514313, 0.2246154546737671, -0.14579762518405914, 0.09646707773208618, -0.30950742959976196, 0.06888047605752945, 0.6363964676856995, -0.545638918876648, 0.09397180378437042, 0.004432688467204571, -0.8227402567863464, 0.06076301261782646, 0.15759125351905823, -0.257259726524353, 0.23704446852207184, 0.38206222653388977, -0.25851812958717346, 0.031131094321608543, -0.11105192452669144, 0.16292959451675415, -0.06397151947021484, -0.28423893451690674, 0.029096318408846855, 0.12655600905418396, -0.7356626987457275, 0.4798544943332672, -0.6810013055801392, -1.4324357509613037, 1.0013370513916016, 0.8035726547241211, -0.10824377834796906, 0.13135786354541779, 0.5469984412193298, 0.1808227151632309, -0.07829204201698303, 0.3062029480934143, -1.0009489059448242, 1.0346200466156006, -0.11594509333372116, 0.3634554445743561, 0.3589567542076111, -0.3506428301334381, -0.13452748954296112, 0.6691504120826721, 0.019433289766311646, -0.2656862437725067, 0.12463990598917007, 0.15581712126731873, 0.06623488664627075, -0.42316892743110657, 0.12124497443437576, 0.33745113015174866, -0.043390609323978424, 0.1447267234325409, 0.3934214413166046, -0.1683497577905655, -0.27948668599128723, -0.05523204803466797, 0.3407367169857025, -0.07000601291656494, -0.028068428859114647, -0.05622788891196251, 0.1266918182373047, -0.12201905250549316, -0.14224663376808167, -0.1074509397149086, -0.22201411426067352, -0.26021477580070496, 0.09851306676864624, 0.22708982229232788, 0.23897850513458252, -0.15337026119232178, -0.012490972876548767, 0.12081597745418549, 0.3377918004989624, -0.007917583920061588, -0.24723751842975616, 0.28527387976646423, -0.13894160091876984, -0.04786199331283569, 0.06952401250600815, -0.009815854951739311, 0.2222352772951126, 0.021665794774889946, 0.37620189785957336, -0.19381514191627502, -0.3705455958843231, -0.2159021645784378, 0.07777076214551926, -0.07848402857780457, 0.02997463196516037, -0.1338915377855301, 0.24438583850860596, -0.0790635421872139, -0.6008366346359253, 0.48164233565330505, 0.18757367134094238, 0.06507603824138641, 0.05454009771347046, 0.01626800373196602, -2.56247878074646, -1.0406447649002075, -1.447532296180725, -0.5228002667427063, -0.45300209522247314, -0.07407595962285995, 0.46964627504348755, 0.1477203518152237, -0.17367485165596008, -0.058904703706502914, 0.2651083469390869, 0.262600302696228, 0.4734719395637512, -0.6454130411148071, 0.32793471217155457, 0.4530775845050812, 0.42441698908805847, 0.6436706185340881, -0.056416191160678864, 0.04643313214182854, 0.5096150636672974, -0.4428040683269501, 0.9221017956733704, -0.49605268239974976, 0.05684801936149597, -0.4083331823348999, 0.3642551302909851, -0.0015796010848134756, -0.09036405384540558, 0.3047010004520416, 0.22142979502677917, -0.10292273014783859, 0.00847745779901743, 0.08969154953956604, 0.03783724457025528, 0.5443436503410339, -0.2565356194972992, -0.5734025835990906, 0.23163489997386932, -0.0067838262766599655, 0.13257206976413727, 0.5594126582145691, -0.33474424481391907, -0.24955134093761444, -0.14681589603424072, 0.14578765630722046, 0.26245900988578796, 2.3295235633850098, 0.05195099860429764, -0.12163502722978592, 0.42685070633888245, 0.12808199226856232, 0.08677483350038528, 0.31159502267837524, 0.13329124450683594, 0.07957543432712555, 0.008689329028129578, -0.03887476772069931, 0.3344877362251282, 0.6950522661209106, 0.10909923166036606, 0.08069464564323425, -0.15211093425750732, -0.1133120208978653, 0.0024100446607917547, 0.07760364562273026, -0.08526358008384705, 0.0014490962494164705, 0.750582754611969, 0.003009342821314931, -0.08187583833932877, 0.40335288643836975, 0.10940778255462646, -1.0025948286056519, -0.031302448362112045, -0.21467791497707367, 0.02300954796373844, 0.3382970988750458, 0.8013928532600403, 1.005182147026062, 0.18581730127334595, 0.13600926101207733, 0.03885560855269432, 0.49118298292160034, 0.08723416179418564, 0.07548754662275314, -0.017500128597021103, 0.04870627447962761, -0.05150919035077095, -0.41684263944625854, -0.08751723170280457, -1.920316219329834, 0.25171956419944763, 0.3684244155883789, -0.23003491759300232, 0.020103253424167633, -0.008007323369383812, 0.3516397476196289, -0.027407558634877205, 0.302692174911499, -0.3987213671207428, -0.1711091846227646, 0.28571248054504395, -0.20080503821372986, 0.15791751444339752, 0.27318844199180603, 0.033171847462654114, 0.3337605893611908, -0.19203053414821625, 0.1491539031267166, 0.2596926987171173, 0.6568617224693298, 0.11371080577373505, -0.4958750307559967, 0.4746338725090027, -0.0876711905002594, -0.11432385444641113, 0.28127071261405945, 0.2719813585281372, 0.26528915762901306, -0.1674841344356537, 0.07773138582706451, 0.3186222314834595, 0.42452237010002136, 0.24128971993923187, -0.055696751922369, 0.8939332365989685, -0.13129989802837372, 0.11234224587678909, 0.2615288197994232, 0.0787653923034668, 0.11531387269496918, -0.235460564494133, -0.07523242384195328, -0.02959267608821392, 0.08744829893112183, -0.09428468346595764, 0.15065565705299377, -0.2715582549571991, -0.2399314045906067, -0.11492794007062912, -0.23455893993377686, 0.12791933119297028, -0.3082600235939026, 0.3269234597682953, 0.022787250578403473, -0.18215380609035492, -0.4656170904636383, -0.03845644369721413, -0.14730918407440186, 0.5877189040184021, -0.17005395889282227, 0.9475328326225281, 0.1430542767047882, -0.6835633516311646, -0.8150078654289246, -0.12091034650802612, -0.04836457967758179, -0.23046547174453735, 0.3559243679046631, 0.2869518995285034, -0.44128191471099854, -0.050015389919281006, 0.1681065559387207, 0.4823986291885376, -0.11955636739730835, 0.3069649934768677, -0.028011441230773926, -0.1917715072631836, 0.30598050355911255, -0.4455450773239136, 0.41890019178390503, 0.4994143843650818, -0.1365121603012085, 0.1975109577178955, 0.49860215187072754, 0.7230107188224792, 0.8440849184989929, 1.1433675289154053, -0.8911275267601013, 0.31879371404647827, 0.019999999552965164]}